%YAML:1.0
---
opencv_ml_ann_mlp:
   format: 3
   layer_sizes: [ 3, 3, 3, 1 ]
   activation_function: SIGMOID_SYM
   f_param1: 6.6666666666666663e-01
   f_param2: 1.7159000000000000e+00
   min_val: -9.4999999999999996e-01
   max_val: 9.4999999999999996e-01
   min_val1: -9.7999999999999998e-01
   max_val1: 9.7999999999999998e-01
   training_params:
      train_method: BACKPROP
      dw_scale: 1.0000000000000001e-01
      moment_scale: 0.
      term_criteria:
         epsilon: 9.9999997473787516e-06
         iterations: 100000
   input_scale:
      - 1.6062831182507620e-02
      - -2.0089051458353619e+00
      - 1.6683050848198759e-02
      - -2.2106264718778945e+00
      - 1.3781314847107149e-02
      - -1.6975430946927028e+00
   output_scale:
      - 5.2631578947368418e-01
      - 1.4999999999999998e+00
   inv_output_scale:
      - 1.8999999999999999e+00
      - -2.8499999999999996e+00
   weights:
      -
         - -5.7386315991744707e-01
         - -3.8155305662580552e-01
         - -2.8223690448112781e-01
         - 1.2256134712096885e-01
         - -2.8309298073066941e-01
         - 3.4435467135864434e-01
         - -3.0357549296158393e-01
         - 3.3535396264352524e-01
         - 3.7340842416022801e-01
         - 7.0819693292874109e-01
         - 9.3758331569211192e-02
         - 2.1391349020098899e-02
      -
         - -3.9337617457769547e-01
         - -5.3930936946957508e-01
         - 3.9874545642532350e-01
         - -3.4497889528780140e-01
         - -2.8573961245243105e-02
         - -4.0791657105098539e-01
         - -2.6164493013450296e-01
         - -4.3211666928518172e-01
         - -1.9333797252369114e-01
         - 4.8372519582539808e-01
         - 1.2576989447300982e-01
         - -2.0823571607865540e-01
      -
         - 6.7467431785880350e-01
         - -9.3030276996609673e-01
         - -8.5051302234390413e-01
         - -9.4104030637524738e-01
